digraph Tree {
node [shape=box] ;
0 [label="duration <= 521.5\ngini = 0.209\nsamples = 31647\nvalue = [27892, 3755]\nclass = No"] ;
1 [label="poutcome <= 0.5\ngini = 0.145\nsamples = 28152\nvalue = [25937, 2215]\nclass = No"] ;
0 -> 1 [labeldistance=2.5, labelangle=45, headlabel="True"] ;
2 [label="age <= 60.5\ngini = 0.107\nsamples = 26092\nvalue = [24613, 1479]\nclass = No"] ;
1 -> 2 ;
3 [label="month_mar <= 0.5\ngini = 0.096\nsamples = 25536\nvalue = [24244, 1292]\nclass = No"] ;
2 -> 3 ;
4 [label="duration <= 221.5\ngini = 0.09\nsamples = 25327\nvalue = [24136, 1191]\nclass = No"] ;
3 -> 4 ;
5 [label="gini = 0.044\nsamples = 17230\nvalue = [16844, 386]\nclass = No"] ;
4 -> 5 ;
6 [label="gini = 0.179\nsamples = 8097\nvalue = [7292, 805]\nclass = No"] ;
4 -> 6 ;
7 [label="duration <= 173.0\ngini = 0.499\nsamples = 209\nvalue = [108, 101]\nclass = No"] ;
3 -> 7 ;
8 [label="gini = 0.407\nsamples = 109\nvalue = [78, 31]\nclass = No"] ;
7 -> 8 ;
9 [label="gini = 0.42\nsamples = 100\nvalue = [30, 70]\nclass = Yes"] ;
7 -> 9 ;
10 [label="duration <= 206.5\ngini = 0.446\nsamples = 556\nvalue = [369, 187]\nclass = No"] ;
2 -> 10 ;
11 [label="duration <= 126.0\ngini = 0.298\nsamples = 291\nvalue = [238, 53]\nclass = No"] ;
10 -> 11 ;
12 [label="gini = 0.13\nsamples = 129\nvalue = [120, 9]\nclass = No"] ;
11 -> 12 ;
13 [label="gini = 0.396\nsamples = 162\nvalue = [118, 44]\nclass = No"] ;
11 -> 13 ;
14 [label="balance <= 4792.5\ngini = 0.5\nsamples = 265\nvalue = [131, 134]\nclass = Yes"] ;
10 -> 14 ;
15 [label="gini = 0.497\nsamples = 234\nvalue = [108, 126]\nclass = Yes"] ;
14 -> 15 ;
16 [label="gini = 0.383\nsamples = 31\nvalue = [23, 8]\nclass = No"] ;
14 -> 16 ;
17 [label="poutcome <= 1.5\ngini = 0.459\nsamples = 2060\nvalue = [1324, 736]\nclass = No"] ;
1 -> 17 ;
18 [label="duration <= 146.5\ngini = 0.464\nsamples = 919\nvalue = [337, 582]\nclass = Yes"] ;
17 -> 18 ;
19 [label="duration <= 80.0\ngini = 0.395\nsamples = 199\nvalue = [145, 54]\nclass = No"] ;
18 -> 19 ;
20 [label="gini = 0.145\nsamples = 51\nvalue = [47, 4]\nclass = No"] ;
19 -> 20 ;
21 [label="gini = 0.447\nsamples = 148\nvalue = [98, 50]\nclass = No"] ;
19 -> 21 ;
22 [label="housing_yes <= 0.5\ngini = 0.391\nsamples = 720\nvalue = [192, 528]\nclass = Yes"] ;
18 -> 22 ;
23 [label="gini = 0.333\nsamples = 508\nvalue = [107, 401]\nclass = Yes"] ;
22 -> 23 ;
24 [label="gini = 0.48\nsamples = 212\nvalue = [85, 127]\nclass = Yes"] ;
22 -> 24 ;
25 [label="housing_yes <= 0.5\ngini = 0.234\nsamples = 1141\nvalue = [987, 154]\nclass = No"] ;
17 -> 25 ;
26 [label="duration <= 159.0\ngini = 0.396\nsamples = 405\nvalue = [295, 110]\nclass = No"] ;
25 -> 26 ;
27 [label="gini = 0.148\nsamples = 162\nvalue = [149, 13]\nclass = No"] ;
26 -> 27 ;
28 [label="gini = 0.48\nsamples = 243\nvalue = [146, 97]\nclass = No"] ;
26 -> 28 ;
29 [label="month_aug <= 0.5\ngini = 0.112\nsamples = 736\nvalue = [692, 44]\nclass = No"] ;
25 -> 29 ;
30 [label="gini = 0.098\nsamples = 719\nvalue = [682, 37]\nclass = No"] ;
29 -> 30 ;
31 [label="gini = 0.484\nsamples = 17\nvalue = [10, 7]\nclass = No"] ;
29 -> 31 ;
32 [label="duration <= 807.5\ngini = 0.493\nsamples = 3495\nvalue = [1955, 1540]\nclass = No"] ;
0 -> 32 [labeldistance=2.5, labelangle=-45, headlabel="False"] ;
33 [label="contact <= 0.0\ngini = 0.462\nsamples = 2167\nvalue = [1382, 785]\nclass = No"] ;
32 -> 33 ;
34 [label="duration <= 637.5\ngini = 0.341\nsamples = 579\nvalue = [453, 126]\nclass = No"] ;
33 -> 34 ;
35 [label="month_may <= 0.5\ngini = 0.279\nsamples = 305\nvalue = [254, 51]\nclass = No"] ;
34 -> 35 ;
36 [label="gini = 0.35\nsamples = 128\nvalue = [99, 29]\nclass = No"] ;
35 -> 36 ;
37 [label="gini = 0.218\nsamples = 177\nvalue = [155, 22]\nclass = No"] ;
35 -> 37 ;
38 [label="balance <= 56.5\ngini = 0.398\nsamples = 274\nvalue = [199, 75]\nclass = No"] ;
34 -> 38 ;
39 [label="gini = 0.26\nsamples = 65\nvalue = [55, 10]\nclass = No"] ;
38 -> 39 ;
40 [label="gini = 0.429\nsamples = 209\nvalue = [144, 65]\nclass = No"] ;
38 -> 40 ;
41 [label="poutcome <= 0.5\ngini = 0.486\nsamples = 1588\nvalue = [929, 659]\nclass = No"] ;
33 -> 41 ;
42 [label="duration <= 634.5\ngini = 0.473\nsamples = 1398\nvalue = [861, 537]\nclass = No"] ;
41 -> 42 ;
43 [label="gini = 0.442\nsamples = 743\nvalue = [498, 245]\nclass = No"] ;
42 -> 43 ;
44 [label="gini = 0.494\nsamples = 655\nvalue = [363, 292]\nclass = No"] ;
42 -> 44 ;
45 [label="poutcome <= 1.5\ngini = 0.46\nsamples = 190\nvalue = [68, 122]\nclass = Yes"] ;
41 -> 45 ;
46 [label="gini = 0.278\nsamples = 102\nvalue = [17, 85]\nclass = Yes"] ;
45 -> 46 ;
47 [label="gini = 0.487\nsamples = 88\nvalue = [51, 37]\nclass = No"] ;
45 -> 47 ;
48 [label="contact <= 0.0\ngini = 0.491\nsamples = 1328\nvalue = [573, 755]\nclass = Yes"] ;
32 -> 48 ;
49 [label="duration <= 889.5\ngini = 0.499\nsamples = 362\nvalue = [188, 174]\nclass = No"] ;
48 -> 49 ;
50 [label="campaign <= 1.5\ngini = 0.45\nsamples = 82\nvalue = [54, 28]\nclass = No"] ;
49 -> 50 ;
51 [label="gini = 0.497\nsamples = 24\nvalue = [11, 13]\nclass = Yes"] ;
50 -> 51 ;
52 [label="gini = 0.383\nsamples = 58\nvalue = [43, 15]\nclass = No"] ;
50 -> 52 ;
53 [label="education <= 1.5\ngini = 0.499\nsamples = 280\nvalue = [134, 146]\nclass = Yes"] ;
49 -> 53 ;
54 [label="gini = 0.496\nsamples = 149\nvalue = [81, 68]\nclass = No"] ;
53 -> 54 ;
55 [label="gini = 0.482\nsamples = 131\nvalue = [53, 78]\nclass = Yes"] ;
53 -> 55 ;
56 [label="month_nov <= 0.5\ngini = 0.479\nsamples = 966\nvalue = [385, 581]\nclass = Yes"] ;
48 -> 56 ;
57 [label="marital_married <= 0.5\ngini = 0.47\nsamples = 846\nvalue = [319, 527]\nclass = Yes"] ;
56 -> 57 ;
58 [label="gini = 0.436\nsamples = 370\nvalue = [119, 251]\nclass = Yes"] ;
57 -> 58 ;
59 [label="gini = 0.487\nsamples = 476\nvalue = [200, 276]\nclass = Yes"] ;
57 -> 59 ;
60 [label="duration <= 1483.0\ngini = 0.495\nsamples = 120\nvalue = [66, 54]\nclass = No"] ;
56 -> 60 ;
61 [label="gini = 0.472\nsamples = 102\nvalue = [63, 39]\nclass = No"] ;
60 -> 61 ;
62 [label="gini = 0.278\nsamples = 18\nvalue = [3, 15]\nclass = Yes"] ;
60 -> 62 ;
}